digraph Tree {
node [shape=box, fontname="helvetica"] ;
edge [fontname="helvetica"] ;
0 [label="petal length (cm) <= 2.45\nentropy = 1.583\nsamples = 112\nvalue = [35, 39, 38]"] ;
1 [label="entropy = 0.0\nsamples = 35\nvalue = [35, 0, 0]"] ;
0 -> 1 [labeldistance=2.5, labelangle=45, headlabel="True"] ;
2 [label="petal length (cm) <= 4.75\nentropy = 1.0\nsamples = 77\nvalue = [0, 39, 38]"] ;
0 -> 2 [labeldistance=2.5, labelangle=-45, headlabel="False"] ;
3 [label="petal width (cm) <= 1.65\nentropy = 0.187\nsamples = 35\nvalue = [0, 34, 1]"] ;
2 -> 3 ;
4 [label="entropy = 0.0\nsamples = 34\nvalue = [0, 34, 0]"] ;
3 -> 4 ;
5 [label="entropy = 0.0\nsamples = 1\nvalue = [0, 0, 1]"] ;
3 -> 5 ;
6 [label="petal length (cm) <= 5.15\nentropy = 0.527\nsamples = 42\nvalue = [0, 5, 37]"] ;
2 -> 6 ;
7 [label="petal width (cm) <= 1.75\nentropy = 0.896\nsamples = 16\nvalue = [0, 5, 11]"] ;
6 -> 7 ;
8 [label="sepal width (cm) <= 2.35\nentropy = 0.918\nsamples = 6\nvalue = [0, 4, 2]"] ;
7 -> 8 ;
9 [label="entropy = 0.0\nsamples = 1\nvalue = [0, 0, 1]"] ;
8 -> 9 ;
10 [label="petal length (cm) <= 5.05\nentropy = 0.722\nsamples = 5\nvalue = [0, 4, 1]"] ;
8 -> 10 ;
11 [label="entropy = 0.0\nsamples = 3\nvalue = [0, 3, 0]"] ;
10 -> 11 ;
12 [label="sepal length (cm) <= 6.15\nentropy = 1.0\nsamples = 2\nvalue = [0, 1, 1]"] ;
10 -> 12 ;
13 [label="entropy = 0.0\nsamples = 1\nvalue = [0, 1, 0]"] ;
12 -> 13 ;
14 [label="entropy = 0.0\nsamples = 1\nvalue = [0, 0, 1]"] ;
12 -> 14 ;
15 [label="sepal width (cm) <= 3.1\nentropy = 0.469\nsamples = 10\nvalue = [0, 1, 9]"] ;
7 -> 15 ;
16 [label="entropy = 0.0\nsamples = 9\nvalue = [0, 0, 9]"] ;
15 -> 16 ;
17 [label="entropy = 0.0\nsamples = 1\nvalue = [0, 1, 0]"] ;
15 -> 17 ;
18 [label="entropy = 0.0\nsamples = 26\nvalue = [0, 0, 26]"] ;
6 -> 18 ;
}